digraph Tree {
node [shape=box] ;
0 [label="男性 <= 0.5\ngini = 0.4464\nsamples = 919\nvalue = [610, 309]"] ;
1 [label="pclass=3rd <= 0.5\ngini = 0.4484\nsamples = 330\nvalue = [112, 218]"] ;
0 -> 1 [labeldistance=2.5, labelangle=45, headlabel="True"] ;
2 [label="age <= 2.5\ngini = 0.1503\nsamples = 171\nvalue = [14, 157]"] ;
1 -> 2 ;
3 [label="pclass=2nd <= 0.5\ngini = 0.5\nsamples = 2\nvalue = [1, 1]"] ;
2 -> 3 ;
4 [label="gini = 0.0\nsamples = 1\nvalue = [1, 0]"] ;
3 -> 4 ;
5 [label="gini = 0.0\nsamples = 1\nvalue = [0, 1]"] ;
3 -> 5 ;
6 [label="age <= 62.5\ngini = 0.142\nsamples = 169\nvalue = [13, 156]"] ;
2 -> 6 ;
7 [label="pclass=2nd <= 0.5\ngini = 0.1341\nsamples = 166\nvalue = [12, 154]"] ;
6 -> 7 ;
8 [label="age <= 31.0971\ngini = 0.0815\nsamples = 94\nvalue = [4, 90]"] ;
7 -> 8 ;
9 [label="gini = 0.0\nsamples = 21\nvalue = [0, 21]"] ;
8 -> 9 ;
10 [label="age <= 36.5\ngini = 0.1036\nsamples = 73\nvalue = [4, 69]"] ;
8 -> 10 ;
11 [label="age <= 35.5\ngini = 0.1609\nsamples = 34\nvalue = [3, 31]"] ;
10 -> 11 ;
12 [label="age <= 32.0971\ngini = 0.1244\nsamples = 30\nvalue = [2, 28]"] ;
11 -> 12 ;
13 [label="gini = 0.1372\nsamples = 27\nvalue = [2, 25]"] ;
12 -> 13 ;
14 [label="gini = 0.0\nsamples = 3\nvalue = [0, 3]"] ;
12 -> 14 ;
15 [label="gini = 0.375\nsamples = 4\nvalue = [1, 3]"] ;
11 -> 15 ;
16 [label="age <= 49.0\ngini = 0.05\nsamples = 39\nvalue = [1, 38]"] ;
10 -> 16 ;
17 [label="gini = 0.0\nsamples = 19\nvalue = [0, 19]"] ;
16 -> 17 ;
18 [label="age <= 50.5\ngini = 0.095\nsamples = 20\nvalue = [1, 19]"] ;
16 -> 18 ;
19 [label="gini = 0.375\nsamples = 4\nvalue = [1, 3]"] ;
18 -> 19 ;
20 [label="gini = 0.0\nsamples = 16\nvalue = [0, 16]"] ;
18 -> 20 ;
21 [label="age <= 53.5\ngini = 0.1975\nsamples = 72\nvalue = [8, 64]"] ;
7 -> 21 ;
22 [label="age <= 30.5\ngini = 0.1777\nsamples = 71\nvalue = [7, 64]"] ;
21 -> 22 ;
23 [label="age <= 25.5\ngini = 0.2392\nsamples = 36\nvalue = [5, 31]"] ;
22 -> 23 ;
24 [label="age <= 16.5\ngini = 0.142\nsamples = 26\nvalue = [2, 24]"] ;
23 -> 24 ;
25 [label="gini = 0.0\nsamples = 9\nvalue = [0, 9]"] ;
24 -> 25 ;
26 [label="age <= 18.5\ngini = 0.2076\nsamples = 17\nvalue = [2, 15]"] ;
24 -> 26 ;
27 [label="gini = 0.4444\nsamples = 3\nvalue = [1, 2]"] ;
26 -> 27 ;
28 [label="age <= 22.5\ngini = 0.1327\nsamples = 14\nvalue = [1, 13]"] ;
26 -> 28 ;
29 [label="age <= 21.5\ngini = 0.2188\nsamples = 8\nvalue = [1, 7]"] ;
28 -> 29 ;
30 [label="gini = 0.0\nsamples = 5\nvalue = [0, 5]"] ;
29 -> 30 ;
31 [label="gini = 0.4444\nsamples = 3\nvalue = [1, 2]"] ;
29 -> 31 ;
32 [label="gini = 0.0\nsamples = 6\nvalue = [0, 6]"] ;
28 -> 32 ;
33 [label="age <= 27.5\ngini = 0.42\nsamples = 10\nvalue = [3, 7]"] ;
23 -> 33 ;
34 [label="age <= 26.5\ngini = 0.5\nsamples = 4\nvalue = [2, 2]"] ;
33 -> 34 ;
35 [label="gini = 0.5\nsamples = 2\nvalue = [1, 1]"] ;
34 -> 35 ;
36 [label="gini = 0.5\nsamples = 2\nvalue = [1, 1]"] ;
34 -> 36 ;
37 [label="age <= 29.5\ngini = 0.2778\nsamples = 6\nvalue = [1, 5]"] ;
33 -> 37 ;
38 [label="gini = 0.0\nsamples = 3\nvalue = [0, 3]"] ;
37 -> 38 ;
39 [label="gini = 0.4444\nsamples = 3\nvalue = [1, 2]"] ;
37 -> 39 ;
40 [label="age <= 43.0\ngini = 0.1078\nsamples = 35\nvalue = [2, 33]"] ;
22 -> 40 ;
41 [label="age <= 31.5971\ngini = 0.0666\nsamples = 29\nvalue = [1, 28]"] ;
40 -> 41 ;
42 [label="age <= 31.0971\ngini = 0.1172\nsamples = 16\nvalue = [1, 15]"] ;
41 -> 42 ;
43 [label="gini = 0.0\nsamples = 2\nvalue = [0, 2]"] ;
42 -> 43 ;
44 [label="gini = 0.1327\nsamples = 14\nvalue = [1, 13]"] ;
42 -> 44 ;
45 [label="gini = 0.0\nsamples = 13\nvalue = [0, 13]"] ;
41 -> 45 ;
46 [label="age <= 44.5\ngini = 0.2778\nsamples = 6\nvalue = [1, 5]"] ;
40 -> 46 ;
47 [label="gini = 0.0\nsamples = 1\nvalue = [1, 0]"] ;
46 -> 47 ;
48 [label="gini = 0.0\nsamples = 5\nvalue = [0, 5]"] ;
46 -> 48 ;
49 [label="gini = 0.0\nsamples = 1\nvalue = [1, 0]"] ;
21 -> 49 ;
50 [label="age <= 63.5\ngini = 0.4444\nsamples = 3\nvalue = [1, 2]"] ;
6 -> 50 ;
51 [label="gini = 0.5\nsamples = 2\nvalue = [1, 1]"] ;
50 -> 51 ;
52 [label="gini = 0.0\nsamples = 1\nvalue = [0, 1]"] ;
50 -> 52 ;
53 [label="age <= 32.5\ngini = 0.4729\nsamples = 159\nvalue = [98, 61]"] ;
1 -> 53 ;
54 [label="age <= 19.0\ngini = 0.4648\nsamples = 147\nvalue = [93, 54]"] ;
53 -> 54 ;
55 [label="age <= 13.0\ngini = 0.4986\nsamples = 19\nvalue = [9, 10]"] ;
54 -> 55 ;
56 [label="age <= 5.5\ngini = 0.4444\nsamples = 6\nvalue = [4, 2]"] ;
55 -> 56 ;
57 [label="age <= 2.5\ngini = 0.4444\nsamples = 3\nvalue = [1, 2]"] ;
56 -> 57 ;
58 [label="gini = 0.0\nsamples = 1\nvalue = [1, 0]"] ;
57 -> 58 ;
59 [label="gini = 0.0\nsamples = 2\nvalue = [0, 2]"] ;
57 -> 59 ;
60 [label="gini = 0.0\nsamples = 3\nvalue = [3, 0]"] ;
56 -> 60 ;
61 [label="age <= 15.5\ngini = 0.4734\nsamples = 13\nvalue = [5, 8]"] ;
55 -> 61 ;
62 [label="gini = 0.0\nsamples = 1\nvalue = [0, 1]"] ;
61 -> 62 ;
63 [label="age <= 17.5\ngini = 0.4861\nsamples = 12\nvalue = [5, 7]"] ;
61 -> 63 ;
64 [label="age <= 16.5\ngini = 0.4444\nsamples = 6\nvalue = [2, 4]"] ;
63 -> 64 ;
65 [label="gini = 0.4444\nsamples = 3\nvalue = [1, 2]"] ;
64 -> 65 ;
66 [label="gini = 0.4444\nsamples = 3\nvalue = [1, 2]"] ;
64 -> 66 ;
67 [label="gini = 0.5\nsamples = 6\nvalue = [3, 3]"] ;
63 -> 67 ;
68 [label="age <= 21.5\ngini = 0.4512\nsamples = 128\nvalue = [84, 44]"] ;
54 -> 68 ;
69 [label="gini = 0.0\nsamples = 3\nvalue = [3, 0]"] ;
68 -> 69 ;
70 [label="age <= 30.5971\ngini = 0.4562\nsamples = 125\nvalue = [81, 44]"] ;
68 -> 70 ;
71 [label="age <= 23.5\ngini = 0.4938\nsamples = 9\nvalue = [4, 5]"] ;
70 -> 71 ;
72 [label="age <= 22.5\ngini = 0.4444\nsamples = 3\nvalue = [1, 2]"] ;
71 -> 72 ;
73 [label="gini = 0.5\nsamples = 2\nvalue = [1, 1]"] ;
72 -> 73 ;
74 [label="gini = 0.0\nsamples = 1\nvalue = [0, 1]"] ;
72 -> 74 ;
75 [label="age <= 28.5\ngini = 0.5\nsamples = 6\nvalue = [3, 3]"] ;
71 -> 75 ;
76 [label="age <= 25.5\ngini = 0.4444\nsamples = 3\nvalue = [2, 1]"] ;
75 -> 76 ;
77 [label="gini = 0.5\nsamples = 2\nvalue = [1, 1]"] ;
76 -> 77 ;
78 [label="gini = 0.0\nsamples = 1\nvalue = [1, 0]"] ;
76 -> 78 ;
79 [label="gini = 0.4444\nsamples = 3\nvalue = [1, 2]"] ;
75 -> 79 ;
80 [label="age <= 31.5971\ngini = 0.4463\nsamples = 116\nvalue = [77, 39]"] ;
70 -> 80 ;
81 [label="gini = 0.4482\nsamples = 115\nvalue = [76, 39]"] ;
80 -> 81 ;
82 [label="gini = 0.0\nsamples = 1\nvalue = [1, 0]"] ;
80 -> 82 ;
83 [label="age <= 37.0\ngini = 0.4861\nsamples = 12\nvalue = [5, 7]"] ;
53 -> 83 ;
84 [label="gini = 0.0\nsamples = 5\nvalue = [0, 5]"] ;
83 -> 84 ;
85 [label="age <= 39.0\ngini = 0.4082\nsamples = 7\nvalue = [5, 2]"] ;
83 -> 85 ;
86 [label="gini = 0.5\nsamples = 2\nvalue = [1, 1]"] ;
85 -> 86 ;
87 [label="age <= 44.0\ngini = 0.32\nsamples = 5\nvalue = [4, 1]"] ;
85 -> 87 ;
88 [label="gini = 0.0\nsamples = 2\nvalue = [2, 0]"] ;
87 -> 88 ;
89 [label="age <= 46.5\ngini = 0.4444\nsamples = 3\nvalue = [2, 1]"] ;
87 -> 89 ;
90 [label="gini = 0.5\nsamples = 2\nvalue = [1, 1]"] ;
89 -> 90 ;
91 [label="gini = 0.0\nsamples = 1\nvalue = [1, 0]"] ;
89 -> 91 ;
92 [label="age <= 3.5\ngini = 0.2613\nsamples = 589\nvalue = [498, 91]"] ;
0 -> 92 [labeldistance=2.5, labelangle=-45, headlabel="False"] ;
93 [label="age <= 0.5833\ngini = 0.1653\nsamples = 11\nvalue = [1, 10]"] ;
92 -> 93 ;
94 [label="gini = 0.0\nsamples = 1\nvalue = [1, 0]"] ;
93 -> 94 ;
95 [label="gini = 0.0\nsamples = 10\nvalue = [0, 10]"] ;
93 -> 95 ;
96 [label="pclass=1st <= 0.5\ngini = 0.241\nsamples = 578\nvalue = [497, 81]"] ;
92 -> 96 ;
97 [label="pclass=2nd <= 0.5\ngini = 0.175\nsamples = 454\nvalue = [410, 44]"] ;
96 -> 97 ;
98 [label="age <= 36.5\ngini = 0.201\nsamples = 344\nvalue = [305, 39]"] ;
97 -> 98 ;
99 [label="age <= 35.5\ngini = 0.2073\nsamples = 332\nvalue = [293, 39]"] ;
98 -> 99 ;
100 [label="age <= 31.5971\ngini = 0.2038\nsamples = 330\nvalue = [292, 38]"] ;
99 -> 100 ;
101 [label="age <= 11.0\ngini = 0.2099\nsamples = 319\nvalue = [281, 38]"] ;
100 -> 101 ;
102 [label="age <= 7.5\ngini = 0.375\nsamples = 8\nvalue = [6, 2]"] ;
101 -> 102 ;
103 [label="gini = 0.0\nsamples = 4\nvalue = [4, 0]"] ;
102 -> 103 ;
104 [label="gini = 0.5\nsamples = 4\nvalue = [2, 2]"] ;
102 -> 104 ;
105 [label="age <= 28.5\ngini = 0.2047\nsamples = 311\nvalue = [275, 36]"] ;
101 -> 105 ;
106 [label="age <= 25.5\ngini = 0.1128\nsamples = 50\nvalue = [47, 3]"] ;
105 -> 106 ;
107 [label="age <= 22.5\ngini = 0.1388\nsamples = 40\nvalue = [37, 3]"] ;
106 -> 107 ;
108 [label="age <= 19.5\ngini = 0.074\nsamples = 26\nvalue = [25, 1]"] ;
107 -> 108 ;
109 [label="age <= 18.5\ngini = 0.1327\nsamples = 14\nvalue = [13, 1]"] ;
108 -> 109 ;
110 [label="gini = 0.0\nsamples = 8\nvalue = [8, 0]"] ;
109 -> 110 ;
111 [label="gini = 0.2778\nsamples = 6\nvalue = [5, 1]"] ;
109 -> 111 ;
112 [label="gini = 0.0\nsamples = 12\nvalue = [12, 0]"] ;
108 -> 112 ;
113 [label="age <= 24.5\ngini = 0.2449\nsamples = 14\nvalue = [12, 2]"] ;
107 -> 113 ;
114 [label="age <= 23.5\ngini = 0.1975\nsamples = 9\nvalue = [8, 1]"] ;
113 -> 114 ;
115 [label="gini = 0.2778\nsamples = 6\nvalue = [5, 1]"] ;
114 -> 115 ;
116 [label="gini = 0.0\nsamples = 3\nvalue = [3, 0]"] ;
114 -> 116 ;
117 [label="gini = 0.32\nsamples = 5\nvalue = [4, 1]"] ;
113 -> 117 ;
118 [label="gini = 0.0\nsamples = 10\nvalue = [10, 0]"] ;
106 -> 118 ;
119 [label="age <= 29.5\ngini = 0.2209\nsamples = 261\nvalue = [228, 33]"] ;
105 -> 119 ;
120 [label="gini = 0.5\nsamples = 2\nvalue = [1, 1]"] ;
119 -> 120 ;
121 [label="age <= 30.5\ngini = 0.2166\nsamples = 259\nvalue = [227, 32]"] ;
119 -> 121 ;
122 [label="gini = 0.375\nsamples = 4\nvalue = [3, 1]"] ;
121 -> 122 ;
123 [label="age <= 31.0971\ngini = 0.2136\nsamples = 255\nvalue = [224, 31]"] ;
121 -> 123 ;
124 [label="gini = 0.0\nsamples = 2\nvalue = [2, 0]"] ;
123 -> 124 ;
125 [label="gini = 0.215\nsamples = 253\nvalue = [222, 31]"] ;
123 -> 125 ;
126 [label="gini = 0.0\nsamples = 11\nvalue = [11, 0]"] ;
100 -> 126 ;
127 [label="gini = 0.5\nsamples = 2\nvalue = [1, 1]"] ;
99 -> 127 ;
128 [label="gini = 0.0\nsamples = 12\nvalue = [12, 0]"] ;
98 -> 128 ;
129 [label="age <= 26.5\ngini = 0.0868\nsamples = 110\nvalue = [105, 5]"] ;
97 -> 129 ;
130 [label="age <= 25.5\ngini = 0.1748\nsamples = 31\nvalue = [28, 3]"] ;
129 -> 130 ;
131 [label="age <= 19.5\ngini = 0.1372\nsamples = 27\nvalue = [25, 2]"] ;
130 -> 131 ;
132 [label="age <= 18.5\ngini = 0.2449\nsamples = 7\nvalue = [6, 1]"] ;
131 -> 132 ;
133 [label="gini = 0.0\nsamples = 4\nvalue = [4, 0]"] ;
132 -> 133 ;
134 [label="gini = 0.4444\nsamples = 3\nvalue = [2, 1]"] ;
132 -> 134 ;
135 [label="age <= 23.5\ngini = 0.095\nsamples = 20\nvalue = [19, 1]"] ;
131 -> 135 ;
136 [label="gini = 0.0\nsamples = 12\nvalue = [12, 0]"] ;
135 -> 136 ;
137 [label="age <= 24.5\ngini = 0.2188\nsamples = 8\nvalue = [7, 1]"] ;
135 -> 137 ;
138 [label="gini = 0.4444\nsamples = 3\nvalue = [2, 1]"] ;
137 -> 138 ;
139 [label="gini = 0.0\nsamples = 5\nvalue = [5, 0]"] ;
137 -> 139 ;
140 [label="gini = 0.375\nsamples = 4\nvalue = [3, 1]"] ;
130 -> 140 ;
141 [label="age <= 40.5\ngini = 0.0494\nsamples = 79\nvalue = [77, 2]"] ;
129 -> 141 ;
142 [label="age <= 31.0971\ngini = 0.0328\nsamples = 60\nvalue = [59, 1]"] ;
141 -> 142 ;
143 [label="gini = 0.0\nsamples = 15\nvalue = [15, 0]"] ;
142 -> 143 ;
144 [label="age <= 31.5971\ngini = 0.0435\nsamples = 45\nvalue = [44, 1]"] ;
142 -> 144 ;
145 [label="gini = 0.0624\nsamples = 31\nvalue = [30, 1]"] ;
144 -> 145 ;
146 [label="gini = 0.0\nsamples = 14\nvalue = [14, 0]"] ;
144 -> 146 ;
147 [label="age <= 41.5\ngini = 0.0997\nsamples = 19\nvalue = [18, 1]"] ;
141 -> 147 ;
148 [label="gini = 0.0\nsamples = 1\nvalue = [0, 1]"] ;
147 -> 148 ;
149 [label="gini = 0.0\nsamples = 18\nvalue = [18, 0]"] ;
147 -> 149 ;
150 [label="age <= 28.5\ngini = 0.4187\nsamples = 124\nvalue = [87, 37]"] ;
96 -> 150 ;
151 [label="age <= 17.5\ngini = 0.4898\nsamples = 21\nvalue = [9, 12]"] ;
150 -> 151 ;
152 [label="gini = 0.0\nsamples = 3\nvalue = [0, 3]"] ;
151 -> 152 ;
153 [label="age <= 24.5\ngini = 0.5\nsamples = 18\nvalue = [9, 9]"] ;
151 -> 153 ;
154 [label="age <= 19.5\ngini = 0.4082\nsamples = 7\nvalue = [5, 2]"] ;
153 -> 154 ;
155 [label="gini = 0.0\nsamples = 1\nvalue = [1, 0]"] ;
154 -> 155 ;
156 [label="age <= 21.5\ngini = 0.4444\nsamples = 6\nvalue = [4, 2]"] ;
154 -> 156 ;
157 [label="gini = 0.5\nsamples = 2\nvalue = [1, 1]"] ;
156 -> 157 ;
158 [label="age <= 23.0\ngini = 0.375\nsamples = 4\nvalue = [3, 1]"] ;
156 -> 158 ;
159 [label="gini = 0.0\nsamples = 1\nvalue = [1, 0]"] ;
158 -> 159 ;
160 [label="gini = 0.4444\nsamples = 3\nvalue = [2, 1]"] ;
158 -> 160 ;
161 [label="age <= 27.5\ngini = 0.4628\nsamples = 11\nvalue = [4, 7]"] ;
153 -> 161 ;
162 [label="age <= 25.5\ngini = 0.4082\nsamples = 7\nvalue = [2, 5]"] ;
161 -> 162 ;
163 [label="gini = 0.4444\nsamples = 3\nvalue = [1, 2]"] ;
162 -> 163 ;
164 [label="age <= 26.5\ngini = 0.375\nsamples = 4\nvalue = [1, 3]"] ;
162 -> 164 ;
165 [label="gini = 0.0\nsamples = 1\nvalue = [0, 1]"] ;
164 -> 165 ;
166 [label="gini = 0.4444\nsamples = 3\nvalue = [1, 2]"] ;
164 -> 166 ;
167 [label="gini = 0.5\nsamples = 4\nvalue = [2, 2]"] ;
161 -> 167 ;
168 [label="age <= 60.5\ngini = 0.3676\nsamples = 103\nvalue = [78, 25]"] ;
150 -> 168 ;
169 [label="age <= 31.0971\ngini = 0.3958\nsamples = 92\nvalue = [67, 25]"] ;
168 -> 169 ;
170 [label="gini = 0.0\nsamples = 5\nvalue = [5, 0]"] ;
169 -> 170 ;
171 [label="age <= 38.5\ngini = 0.4096\nsamples = 87\nvalue = [62, 25]"] ;
169 -> 171 ;
172 [label="age <= 34.0\ngini = 0.4398\nsamples = 49\nvalue = [33, 16]"] ;
171 -> 172 ;
173 [label="age <= 32.5\ngini = 0.405\nsamples = 39\nvalue = [28, 11]"] ;
172 -> 173 ;
174 [label="age <= 31.5971\ngini = 0.4178\nsamples = 37\nvalue = [26, 11]"] ;
173 -> 174 ;
175 [label="gini = 0.4082\nsamples = 35\nvalue = [25, 10]"] ;
174 -> 175 ;
176 [label="gini = 0.5\nsamples = 2\nvalue = [1, 1]"] ;
174 -> 176 ;
177 [label="gini = 0.0\nsamples = 2\nvalue = [2, 0]"] ;
173 -> 177 ;
178 [label="age <= 35.5\ngini = 0.5\nsamples = 10\nvalue = [5, 5]"] ;
172 -> 178 ;
179 [label="gini = 0.0\nsamples = 1\nvalue = [0, 1]"] ;
178 -> 179 ;
180 [label="age <= 36.5\ngini = 0.4938\nsamples = 9\nvalue = [5, 4]"] ;
178 -> 180 ;
181 [label="gini = 0.48\nsamples = 5\nvalue = [3, 2]"] ;
180 -> 181 ;
182 [label="age <= 37.5\ngini = 0.5\nsamples = 4\nvalue = [2, 2]"] ;
180 -> 182 ;
183 [label="gini = 0.5\nsamples = 2\nvalue = [1, 1]"] ;
182 -> 183 ;
184 [label="gini = 0.5\nsamples = 2\nvalue = [1, 1]"] ;
182 -> 184 ;
185 [label="age <= 47.5\ngini = 0.3615\nsamples = 38\nvalue = [29, 9]"] ;
171 -> 185 ;
186 [label="age <= 43.0\ngini = 0.1884\nsamples = 19\nvalue = [17, 2]"] ;
185 -> 186 ;
187 [label="gini = 0.0\nsamples = 8\nvalue = [8, 0]"] ;
186 -> 187 ;
188 [label="age <= 45.5\ngini = 0.2975\nsamples = 11\nvalue = [9, 2]"] ;
186 -> 188 ;
189 [label="age <= 44.5\ngini = 0.4444\nsamples = 3\nvalue = [1, 2]"] ;
188 -> 189 ;
190 [label="gini = 0.0\nsamples = 1\nvalue = [0, 1]"] ;
189 -> 190 ;
191 [label="gini = 0.5\nsamples = 2\nvalue = [1, 1]"] ;
189 -> 191 ;
192 [label="gini = 0.0\nsamples = 8\nvalue = [8, 0]"] ;
188 -> 192 ;
193 [label="age <= 49.5\ngini = 0.4654\nsamples = 19\nvalue = [12, 7]"] ;
185 -> 193 ;
194 [label="age <= 48.5\ngini = 0.48\nsamples = 5\nvalue = [2, 3]"] ;
193 -> 194 ;
195 [label="gini = 0.5\nsamples = 2\nvalue = [1, 1]"] ;
194 -> 195 ;
196 [label="gini = 0.4444\nsamples = 3\nvalue = [1, 2]"] ;
194 -> 196 ;
197 [label="age <= 51.5\ngini = 0.4082\nsamples = 14\nvalue = [10, 4]"] ;
193 -> 197 ;
198 [label="gini = 0.0\nsamples = 3\nvalue = [3, 0]"] ;
197 -> 198 ;
199 [label="age <= 54.5\ngini = 0.4628\nsamples = 11\nvalue = [7, 4]"] ;
197 -> 199 ;
200 [label="age <= 53.0\ngini = 0.5\nsamples = 4\nvalue = [2, 2]"] ;
199 -> 200 ;
201 [label="gini = 0.5\nsamples = 2\nvalue = [1, 1]"] ;
200 -> 201 ;
202 [label="gini = 0.5\nsamples = 2\nvalue = [1, 1]"] ;
200 -> 202 ;
203 [label="age <= 59.0\ngini = 0.4082\nsamples = 7\nvalue = [5, 2]"] ;
199 -> 203 ;
204 [label="age <= 56.5\ngini = 0.32\nsamples = 5\nvalue = [4, 1]"] ;
203 -> 204 ;
205 [label="age <= 55.5\ngini = 0.4444\nsamples = 3\nvalue = [2, 1]"] ;
204 -> 205 ;
206 [label="gini = 0.0\nsamples = 1\nvalue = [1, 0]"] ;
205 -> 206 ;
207 [label="gini = 0.5\nsamples = 2\nvalue = [1, 1]"] ;
205 -> 207 ;
208 [label="gini = 0.0\nsamples = 2\nvalue = [2, 0]"] ;
204 -> 208 ;
209 [label="gini = 0.5\nsamples = 2\nvalue = [1, 1]"] ;
203 -> 209 ;
210 [label="gini = 0.0\nsamples = 11\nvalue = [11, 0]"] ;
168 -> 210 ;
}